{
  "0_weights": [
    [
      -0.06827978789806366,
      -0.14997261762619019,
      0.2830814719200134,
      -0.7335641384124756,
      -0.8120056390762329,
      -0.27300992608070374,
      0.19049683213233948,
      -0.4828508198261261,
      -0.0977492704987526,
      -0.35420194268226624,
      -0.28744590282440186,
      0.01806056499481201,
      -0.29423606395721436,
      -0.07423460483551025,
      0.3652249574661255,
      -0.29343241453170776
    ],
    [
      -0.0007243986474350095,
      -0.3787543475627899,
      -0.06632763892412186,
      0.300811767578125,
      -0.5796118974685669,
      -0.03934836760163307,
      0.2570611536502838,
      -0.18058575689792633,
      0.11924704909324646,
      0.08897768706083298,
      -0.527651846408844,
      -0.1471160501241684,
      -0.1133052408695221,
      -0.3713896870613098,
      0.24433912336826324,
      -0.04569515958428383
    ],
    [
      -0.2871304154396057,
      -0.19968557357788086,
      -0.7940014600753784,
      -0.5628460645675659,
      1.2452391386032104,
      -0.3288167715072632,
      -0.28455305099487305,
      -0.373649924993515,
      0.48985785245895386,
      0.005741884466260672,
      0.4058677554130554,
      0.1426718533039093,
      0.10914601385593414,
      -0.28663650155067444,
      0.3069593608379364,
      -0.06477558612823486
    ],
    [
      -0.2939320206642151,
      -0.21447820961475372,
      -0.06117907539010048,
      -1.3427618741989136,
      0.1971278339624405,
      -0.30443739891052246,
      0.7569734454154968,
      -0.46755436062812805,
      -0.020676404237747192,
      -0.37807944416999817,
      0.5447837710380554,
      -0.28922441601753235,
      -0.13252407312393188,
      0.11006813496351242,
      -0.32850518822669983,
      -0.8568740487098694
    ],
    [
      -0.21093039214611053,
      -0.0790192261338234,
      0.44259488582611084,
      0.7000760436058044,
      -1.4977951049804688,
      -0.2502666413784027,
      -0.37321075797080994,
      0.05731772258877754,
      0.7785653471946716,
      -0.2788531184196472,
      -0.6575998663902283,
      -0.1787077933549881,
      -0.09297311305999756,
      -0.04127791151404381,
      0.530990481376648,
      0.17449581623077393
    ],
    [
      0.009144004434347153,
      0.029009753838181496,
      -0.586846649646759,
      0.6630582809448242,
      -1.441651701927185,
      0.04191480949521065,
      -0.24132230877876282,
      0.01858329214155674,
      0.44666555523872375,
      -0.4803127646446228,
      -0.7292138338088989,
      -0.07547728717327118,
      -0.12728570401668549,
      -0.25132766366004944,
      0.3236902952194214,
      0.6691538691520691
    ],
    [
      -0.07984796166419983,
      0.09003380686044693,
      -1.2154393196105957,
      -1.6141332387924194,
      0.4355725347995758,
      0.025711841881275177,
      0.43946436047554016,
      -0.48445215821266174,
      -0.5708237886428833,
      -0.16559049487113953,
      0.13794808089733124,
      -0.1468702107667923,
      -0.04058396443724632,
      -0.3424052894115448,
      0.03341682255268097,
      -0.12484145164489746
    ],
    [
      0.08885832130908966,
      -0.2945951223373413,
      1.1251908540725708,
      -0.11499658226966858,
      0.32121285796165466,
      -0.2740650177001953,
      0.7695064544677734,
      -0.12908706068992615,
      0.048888690769672394,
      -0.44104868173599243,
      0.28101176023483276,
      -0.10547873377799988,
      0.09007641673088074,
      -0.2179766446352005,
      0.10567286610603333,
      -0.0056729987263679504
    ],
    [
      -0.08981044590473175,
      -0.22148525714874268,
      0.3934290111064911,
      -1.540987491607666,
      0.12753154337406158,
      -0.004465463105589151,
      0.7744768261909485,
      -0.23788322508335114,
      0.04185009002685547,
      -0.4652004837989807,
      0.447263240814209,
      -0.24712523818016052,
      0.1839762181043625,
      -0.3933265805244446,
      -0.4217255413532257,
      -0.6319004893302917
    ],
    [
      0.007422160357236862,
      0.10951408743858337,
      0.9516298770904541,
      -1.3541193008422852,
      -0.059572722762823105,
      0.06999272108078003,
      0.7927752733230591,
      -0.23936977982521057,
      0.05348829925060272,
      -0.2525518536567688,
      0.42623719573020935,
      -0.06413602828979492,
      0.08986902981996536,
      -0.170418843626976,
      -0.4588095545768738,
      -0.9619476199150085
    ],
    [
      -0.15686610341072083,
      0.15949156880378723,
      -1.4553035497665405,
      -1.5599288940429688,
      0.5415934324264526,
      -0.1335662454366684,
      0.3458815813064575,
      -0.3215261995792389,
      -0.5489966869354248,
      -0.1528441309928894,
      0.3369874656200409,
      0.06444999575614929,
      0.18462920188903809,
      0.07869821786880493,
      0.09839491546154022,
      0.11774631589651108
    ]
  ],
  "0_bias": [
    -0.1605307161808014,
    -0.22556374967098236,
    -0.020300516858696938,
    -0.028726644814014435,
    -0.05224328115582466,
    -0.1586935967206955,
    0.2872716784477234,
    -0.12376230955123901,
    0.3892345428466797,
    -0.09054839611053467,
    -0.27649641036987305,
    -0.0634094774723053,
    -0.34995508193969727,
    0.057095009833574295,
    0.6852102875709534,
    0.34811973571777344
  ],
  "1_weights": [
    [
      -0.17634457349777222,
      -0.18540991842746735,
      -0.35035017132759094,
      -0.06133624166250229,
      -0.17172130942344666,
      -0.3098626434803009,
      -0.057169049978256226,
      -0.007547039072960615,
      -0.0752657800912857,
      0.24222344160079956,
      -0.04498514533042908,
      -0.1706077754497528,
      0.08270469307899475,
      0.16822898387908936,
      -0.06686706840991974,
      0.2121945321559906
    ],
    [
      0.011149972677230835,
      0.031656503677368164,
      0.12384447455406189,
      0.18755701184272766,
      0.11284849047660828,
      0.0540120005607605,
      -0.011117786169052124,
      -0.18562236428260803,
      0.031216353178024292,
      0.24990370869636536,
      0.09732812643051147,
      -0.040395647287368774,
      0.2499190866947174,
      0.0185835063457489,
      -0.048232197761535645,
      0.016397088766098022
    ],
    [
      -0.17623353004455566,
      -0.5468632578849792,
      -0.313225656747818,
      -0.2301141619682312,
      0.21977676451206207,
      -0.21880483627319336,
      -0.05411815643310547,
      0.7953183054924011,
      -0.27895376086235046,
      0.8889355659484863,
      0.044405460357666016,
      -0.729181706905365,
      0.12966573238372803,
      -0.2211391180753708,
      -0.6106564402580261,
      -0.28835123777389526
    ],
    [
      -0.13762104511260986,
      0.02507299929857254,
      -0.07096606492996216,
      0.00040021538734436035,
      -0.37413960695266724,
      -0.22289395332336426,
      -0.004025158006697893,
      1.101071834564209,
      0.019647061824798584,
      -0.07174604386091232,
      0.10636705160140991,
      0.6694173812866211,
      0.15541207790374756,
      0.22976195812225342,
      1.256230354309082,
      -0.08957123756408691
    ],
    [
      -0.1456763744354248,
      1.7084811925888062,
      -0.19434279203414917,
      0.013433929532766342,
      0.6139972805976868,
      0.14394789934158325,
      0.0790414810180664,
      -1.9284842014312744,
      0.10725715756416321,
      0.896696150302887,
      -0.08495688438415527,
      -0.18900194764137268,
      -0.08749803900718689,
      -0.048113755881786346,
      -4.4184184074401855,
      -0.09861260652542114
    ],
    [
      0.08543625473976135,
      -0.15241314470767975,
      -0.03702184557914734,
      -0.24177303910255432,
      0.048320502042770386,
      -0.1623528003692627,
      -0.005157142877578735,
      -0.0314696729183197,
      0.22527843713760376,
      -0.1831173449754715,
      0.12189283967018127,
      -0.1219753623008728,
      0.11995688080787659,
      -0.18978634476661682,
      -0.15435999631881714,
      -0.19057950377464294
    ],
    [
      -0.14897829294204712,
      0.18908487260341644,
      -0.1206228956580162,
      0.04383637011051178,
      0.47154510021209717,
      -0.10668710619211197,
      -0.15436837077140808,
      -0.47474607825279236,
      -0.012871865183115005,
      0.4355810284614563,
      -0.174617737531662,
      -3.122074842453003,
      0.028726637363433838,
      0.06480851769447327,
      -0.1985086053609848,
      -0.0013345713960006833
    ],
    [
      -0.005454301834106445,
      0.03189826011657715,
      0.20620188117027283,
      -0.20673060417175293,
      -0.027826085686683655,
      0.07162338495254517,
      -0.1541074514389038,
      0.1722165048122406,
      0.03350076079368591,
      -0.07899013161659241,
      0.05646374821662903,
      -0.14193639159202576,
      -0.059704333543777466,
      0.18984344601631165,
      0.28187641501426697,
      -0.22696739435195923
    ],
    [
      -0.07480377703905106,
      -1.5937711000442505,
      -0.04519302025437355,
      -0.07263537496328354,
      0.14317657053470612,
      -0.06258239597082138,
      0.08430285006761551,
      0.5182527899742126,
      -0.03175869211554527,
      -0.33388251066207886,
      -0.16914796829223633,
      0.5216143131256104,
      -0.14092746376991272,
      -0.17559629678726196,
      0.3025140166282654,
      -0.1429983377456665
    ],
    [
      0.16115576028823853,
      -0.19302384555339813,
      0.2239232063293457,
      -0.042504191398620605,
      -0.12634848058223724,
      -0.1682204306125641,
      -0.18610602617263794,
      -0.16467304527759552,
      -0.12161991000175476,
      0.06282567977905273,
      -0.24663439393043518,
      0.28299927711486816,
      -0.1402791440486908,
      0.14053863286972046,
      0.15175257623195648,
      -0.24291515350341797
    ],
    [
      -0.18898001313209534,
      0.3878093957901001,
      0.01755613274872303,
      -0.28153082728385925,
      0.3864324390888214,
      -0.280817449092865,
      0.10241636633872986,
      0.11048752069473267,
      -0.304736465215683,
      0.4221213459968567,
      -0.20076394081115723,
      -0.7134835124015808,
      -0.19237020611763,
      -0.34188759326934814,
      -0.6242194771766663,
      -0.1764543652534485
    ],
    [
      -0.17162805795669556,
      -0.2028866708278656,
      -0.15805348753929138,
      0.03304275870323181,
      0.07385748624801636,
      0.1992706060409546,
      -0.08406338095664978,
      0.16649064421653748,
      -0.21498027443885803,
      0.13628387451171875,
      0.19736751914024353,
      0.19303181767463684,
      0.16783258318901062,
      -0.03917858004570007,
      -0.18578612804412842,
      0.16810822486877441
    ],
    [
      -0.14516538381576538,
      0.1511642187833786,
      0.02030828408896923,
      0.11868636310100555,
      0.2628879249095917,
      -0.031148379668593407,
      -0.12061700224876404,
      -0.14827042818069458,
      0.19126619398593903,
      -0.0840456411242485,
      0.13525891304016113,
      0.22229662537574768,
      0.17773279547691345,
      0.15935561060905457,
      -0.008985057473182678,
      -0.2366197407245636
    ],
    [
      0.17498335242271423,
      0.33635053038597107,
      -0.17672401666641235,
      -0.07307988405227661,
      -0.015010446310043335,
      0.20740613341331482,
      0.04491126537322998,
      0.030638599768280983,
      0.15869733691215515,
      0.01742473989725113,
      0.23455393314361572,
      -0.038008976727724075,
      -0.028453171253204346,
      0.010329782962799072,
      0.20536260306835175,
      0.20779678225517273
    ],
    [
      -0.1751871109008789,
      0.2527812719345093,
      -0.10595628619194031,
      -0.14842352271080017,
      -0.6267309188842773,
      -0.08381015062332153,
      -0.21845383942127228,
      0.4137458801269531,
      -0.24394480884075165,
      -0.6038881540298462,
      0.2002803087234497,
      0.34158557653427124,
      -0.1446714997291565,
      -0.12565290927886963,
      -0.06110536679625511,
      -0.19618503749370575
    ],
    [
      0.12555132806301117,
      1.8592694997787476,
      -0.045170556753873825,
      -0.22509555518627167,
      -0.35597920417785645,
      -0.0012060794979333878,
      -0.030978098511695862,
      0.36355507373809814,
      0.029798099771142006,
      -0.35813888907432556,
      -0.22326135635375977,
      0.6516973972320557,
      0.19322636723518372,
      -0.04356827959418297,
      0.24167391657829285,
      0.07322102785110474
    ]
  ],
  "1_bias": [
    -0.07392007857561111,
    0.03448711335659027,
    0.08407914638519287,
    -0.0019610081799328327,
    0.13431420922279358,
    0.04872259497642517,
    -0.2536114454269409,
    0.362750381231308,
    -0.13237400352954865,
    -0.16749463975429535,
    -0.20045727491378784,
    0.11734887212514877,
    -0.24546939134597778,
    -0.22791054844856262,
    0.26339396834373474,
    -0.3214930593967438
  ],
  "2_weights": [
    [
      0.07969105243682861,
      -0.17648303508758545,
      -0.20948639512062073
    ],
    [
      -0.6660193800926208,
      -0.2488861232995987,
      0.21298663318157196
    ],
    [
      0.12750668823719025,
      -0.24622850120067596,
      0.11856324225664139
    ],
    [
      -0.08219227939844131,
      0.07974577695131302,
      0.1171417087316513
    ],
    [
      -0.2808935344219208,
      -0.2676161229610443,
      -0.5432916283607483
    ],
    [
      0.0053116376511752605,
      0.15314440429210663,
      0.10272635519504547
    ],
    [
      0.02096819505095482,
      0.04730023443698883,
      0.2328077107667923
    ],
    [
      0.7223174571990967,
      0.5082986950874329,
      0.3342498540878296
    ],
    [
      0.23202650249004364,
      -0.019230833277106285,
      0.13326138257980347
    ],
    [
      -0.017947949469089508,
      -0.3360074460506439,
      -0.44987303018569946
    ],
    [
      0.08765411376953125,
      -0.05435791611671448,
      0.07894393801689148
    ],
    [
      -1.0034421682357788,
      -0.9418385028839111,
      1.0602160692214966
    ],
    [
      -0.21352532505989075,
      0.12392738461494446,
      -0.07387334108352661
    ],
    [
      0.2506631016731262,
      -0.15888622403144836,
      0.08525920659303665
    ],
    [
      -0.1676550656557083,
      0.4677669107913971,
      0.2800883650779724
    ],
    [
      0.0185718797147274,
      -0.139237180352211,
      -0.014325549826025963
    ]
  ],
  "2_bias": [
    0.07059859484434128,
    -0.04341461881995201,
    -0.011664820834994316
  ]
}