{
  "0_weights": [
    [
      -0.282894104719162,
      -0.15981963276863098,
      -0.5455452799797058,
      -0.2456994205713272,
      -0.3573365807533264,
      -0.22636395692825317,
      0.2179541289806366,
      -0.11421911418437958,
      0.2953607141971588,
      -0.319443017244339,
      -0.22123360633850098,
      -0.05314373970031738,
      -0.291151762008667,
      0.570355236530304,
      0.7738558650016785,
      -0.8989589214324951
    ],
    [
      0.3645819425582886,
      -0.3885973393917084,
      0.09568976610898972,
      -0.3245411813259125,
      -0.2597717046737671,
      -0.02993096597492695,
      0.18019238114356995,
      -0.011691216379404068,
      -0.4123416543006897,
      0.07264761626720428,
      0.21519431471824646,
      -0.21839995682239532,
      -0.12396974116563797,
      -0.25967225432395935,
      0.2385772466659546,
      -0.7896129488945007
    ],
    [
      -0.09374887496232986,
      -0.30023449659347534,
      0.08919831365346909,
      -0.40526559948921204,
      0.036337025463581085,
      -0.3047230839729309,
      0.031166722998023033,
      -0.016984641551971436,
      -0.10598450899124146,
      0.007820448838174343,
      0.05462793633341789,
      0.07253840565681458,
      0.09666463732719421,
      -0.12140979617834091,
      -0.23693467676639557,
      -0.08795251697301865
    ],
    [
      -0.6635041832923889,
      -0.22446048259735107,
      0.029053861275315285,
      -0.31239646673202515,
      0.02194221504032612,
      -0.27406758069992065,
      1.1050326824188232,
      -3.0596671104431152,
      0.8337739706039429,
      -0.2314838021993637,
      0.12855404615402222,
      -0.3616851568222046,
      -0.15059882402420044,
      1.0413057804107666,
      0.6177485585212708,
      -0.023754525929689407
    ],
    [
      0.3954252600669861,
      -0.08938471972942352,
      0.5924059152603149,
      0.15599288046360016,
      -0.2809489667415619,
      -0.2413490116596222,
      -0.778672993183136,
      0.37872231006622314,
      -0.009878757409751415,
      -0.284541517496109,
      0.7545682787895203,
      -0.250532329082489,
      -0.0919790118932724,
      -0.18968743085861206,
      -1.7454230785369873,
      0.2568625211715698
    ],
    [
      0.601226806640625,
      0.018644316121935844,
      -0.25429075956344604,
      0.03163587301969528,
      -0.1567184031009674,
      0.043749623000621796,
      -0.2056417316198349,
      0.8265082836151123,
      -0.24102114140987396,
      -0.47900503873825073,
      0.1497495174407959,
      -0.14826765656471252,
      -0.12778475880622864,
      -0.36784428358078003,
      -1.094923734664917,
      0.7206502556800842
    ],
    [
      -0.07872182130813599,
      0.18091368675231934,
      -0.1500907987356186,
      0.29092663526535034,
      0.05532444268465042,
      0.10470835864543915,
      -0.8631502389907837,
      -2.3368582725524902,
      -0.07575520873069763,
      -0.03334752470254898,
      -0.009251316078007221,
      -0.2136692851781845,
      -0.038117118179798126,
      0.44788315892219543,
      1.0267601013183594,
      -1.049250841140747
    ],
    [
      0.7668341398239136,
      -0.3049605190753937,
      0.18912768363952637,
      -0.08856392651796341,
      0.15309374034404755,
      -0.2570456862449646,
      -0.04861071705818176,
      0.06338316202163696,
      -0.5992864966392517,
      -0.3870168924331665,
      0.5442333221435547,
      -0.17814309895038605,
      0.07240086793899536,
      -0.565750241279602,
      -1.9622349739074707,
      0.670145571231842
    ],
    [
      0.19584998488426208,
      -0.23184834420681,
      0.007436416111886501,
      -0.26374033093452454,
      -0.051906827837228775,
      -0.007320956792682409,
      0.319572776556015,
      -0.5376350283622742,
      -0.018189240247011185,
      -0.3907618820667267,
      0.45165741443634033,
      -0.31974682211875916,
      0.16750262677669525,
      -0.2205016314983368,
      -1.998990774154663,
      0.45225510001182556
    ],
    [
      0.5011002421379089,
      0.00896034948527813,
      0.6488469243049622,
      -0.05356324091553688,
      -0.11548828333616257,
      0.08949045091867447,
      0.035480011254549026,
      0.22261624038219452,
      0.10348957031965256,
      -0.20688496530056,
      0.7325279116630554,
      -0.1364041119813919,
      0.07456362992525101,
      -0.07545919716358185,
      -1.4530203342437744,
      0.03676917403936386
    ],
    [
      0.23937277495861053,
      0.1498178094625473,
      0.2672855257987976,
      -0.38978177309036255,
      0.06676293909549713,
      -0.1342436522245407,
      -0.22940558195114136,
      0.4954514801502228,
      0.019329175353050232,
      -0.08476573973894119,
      0.7809333801269531,
      -0.03378788009285927,
      0.16812662780284882,
      0.4129033088684082,
      -1.3214200735092163,
      0.6645148992538452
    ]
  ],
  "0_bias": [
    0.02215387113392353,
    -0.23515038192272186,
    0.08343485742807388,
    -0.34466999769210815,
    -0.10808181017637253,
    -0.114027239382267,
    0.1260804682970047,
    0.08208873867988586,
    0.10103008896112442,
    -0.10381346195936203,
    -0.00955906230956316,
    -0.13355062901973724,
    -0.3579810857772827,
    0.48522791266441345,
    0.11619645357131958,
    0.11250078678131104
  ],
  "1_weights": [
    [
      -0.17634457349777222,
      -0.054230302572250366,
      -0.8865959644317627,
      0.010491112247109413,
      -0.2247844934463501,
      0.10682012885808945,
      -0.057169049978256226,
      0.5537509918212891,
      0.047127678990364075,
      0.09245120733976364,
      -0.14559096097946167,
      -0.2290576845407486,
      0.023233411833643913,
      0.12574037909507751,
      -0.21256743371486664,
      0.11354481428861618
    ],
    [
      0.011149972677230835,
      0.031656503677368164,
      0.12384447455406189,
      0.18755701184272766,
      0.012358124367892742,
      0.0540120005607605,
      -0.011117786169052124,
      -0.08516404032707214,
      0.031216353178024292,
      0.15049238502979279,
      0.09732812643051147,
      -0.040395647287368774,
      0.2499190866947174,
      0.0185835063457489,
      -0.048232197761535645,
      0.016397088766098022
    ],
    [
      -0.26216447353363037,
      -0.13706010580062866,
      -0.2969367206096649,
      -0.2293720543384552,
      0.29591619968414307,
      -0.5314809679985046,
      -0.05493294820189476,
      0.3144146800041199,
      -0.2632920742034912,
      -0.24378171563148499,
      0.044405460357666016,
      -0.22080665826797485,
      0.07019393891096115,
      -0.17655880749225616,
      -0.11772619187831879,
      -0.2652716040611267
    ],
    [
      -0.13762104511260986,
      -0.04942038655281067,
      -0.07096606492996216,
      0.00040021538734436035,
      -0.06443610787391663,
      -0.2885090708732605,
      0.08455023169517517,
      -0.002378044417127967,
      0.019647061824798584,
      0.25975748896598816,
      0.10636705160140991,
      0.17359912395477295,
      0.15541207790374756,
      0.22976195812225342,
      0.23120740056037903,
      -0.08957123756408691
    ],
    [
      -0.1456763744354248,
      0.031366586685180664,
      -0.20047566294670105,
      0.01664617285132408,
      0.00874598603695631,
      0.1728425770998001,
      0.0790414810180664,
      0.044727616012096405,
      0.08208999782800674,
      0.18021976947784424,
      -0.08495688438415527,
      -0.18900194764137268,
      -0.08749803900718689,
      0.12489095330238342,
      -0.030316321179270744,
      0.05459102988243103
    ],
    [
      0.08543625473976135,
      -0.057086169719696045,
      -0.03702184557914734,
      -0.24177303910255432,
      -0.01169610396027565,
      -0.2578606903553009,
      -0.005157142877578735,
      0.10579930990934372,
      0.22527843713760376,
      0.004084150772541761,
      0.12189283967018127,
      -0.1219753623008728,
      0.11995688080787659,
      -0.18978634476661682,
      -0.15435999631881714,
      -0.19057950377464294
    ],
    [
      -0.2349092662334442,
      -0.1297231763601303,
      -0.6923113465309143,
      0.05228883773088455,
      0.4256133437156677,
      -0.06553420424461365,
      -0.1536717414855957,
      -0.05571487918496132,
      0.0024282392114400864,
      1.2628470659255981,
      -0.07429569214582443,
      -0.299971342086792,
      -0.030736856162548065,
      0.2574974000453949,
      -0.03419571369886398,
      0.025553714483976364
    ],
    [
      -0.005454301834106445,
      -0.034711312502622604,
      1.1596524715423584,
      -0.20673060417175293,
      -0.9265491366386414,
      1.8068346977233887,
      -0.1541074514389038,
      0.24568629264831543,
      -0.014513582922518253,
      -0.4267869293689728,
      0.05646374821662903,
      -0.20037992298603058,
      -0.059704333543777466,
      0.028786303475499153,
      0.04253128543496132,
      -0.22696739435195923
    ],
    [
      -0.07541394978761673,
      -0.2268679291009903,
      0.29524752497673035,
      -0.09753013402223587,
      0.3542982041835785,
      -0.0012269560247659683,
      0.07543989270925522,
      0.08250971883535385,
      -0.08644356578588486,
      -0.13800907135009766,
      -0.3320503532886505,
      0.10494014620780945,
      -0.14092746376991272,
      -0.22740672528743744,
      -0.17734161019325256,
      -0.3389691710472107
    ],
    [
      0.16115576028823853,
      -0.13103285431861877,
      0.2239232063293457,
      -0.042504191398620605,
      -0.1982513666152954,
      -0.06963242590427399,
      -0.18610602617263794,
      -0.05028175935149193,
      -0.12161991000175476,
      0.11587447673082352,
      -0.24663439393043518,
      0.20469000935554504,
      -0.1402791440486908,
      0.14053863286972046,
      -0.3374003767967224,
      -0.24291515350341797
    ],
    [
      -0.2749107778072357,
      0.06128469109535217,
      -1.5844813585281372,
      -0.26904135942459106,
      0.18005552887916565,
      -0.8638702630996704,
      0.004970799665898085,
      0.5273182988166809,
      -0.32707977294921875,
      -0.06619658321142197,
      -0.20076394081115723,
      0.12051081657409668,
      -0.25184166431427,
      -0.2366974800825119,
      -0.18136584758758545,
      -0.14936554431915283
    ],
    [
      -0.17162805795669556,
      -0.2028866708278656,
      -0.15805348753929138,
      0.03304275870323181,
      0.14625710248947144,
      0.27190080285072327,
      -0.08406338095664978,
      0.09449020028114319,
      -0.21498027443885803,
      0.06396318227052689,
      0.19736751914024353,
      0.19303181767463684,
      0.16783258318901062,
      -0.03917858004570007,
      -0.18578612804412842,
      0.16810822486877441
    ],
    [
      -0.14516538381576538,
      -0.017951548099517822,
      0.008582222275435925,
      0.10399691760540009,
      0.2975147068500519,
      -0.06188839301466942,
      -0.12061700224876404,
      -0.14551016688346863,
      0.1520800143480301,
      -0.05596330016851425,
      0.13525891304016113,
      0.22229662537574768,
      0.17773279547691345,
      0.25492361187934875,
      -0.17783144116401672,
      -0.2366197407245636
    ],
    [
      0.08905211091041565,
      -0.15579594671726227,
      0.053504589945077896,
      -0.07307988405227661,
      0.8131965398788452,
      0.5623704791069031,
      -0.0525350347161293,
      -0.44241565465927124,
      -0.007489749696105719,
      -0.32166796922683716,
      0.07151658833026886,
      -0.1646958440542221,
      -0.028453171253204346,
      -0.18548141419887543,
      -0.08691614866256714,
      0.1091492548584938
    ],
    [
      -0.08986625075340271,
      0.0903092622756958,
      0.33279943466186523,
      -0.14842352271080017,
      1.2441985607147217,
      1.9048453569412231,
      -0.12986424565315247,
      -0.06026335060596466,
      -0.14507099986076355,
      1.2760282754898071,
      0.037228185683488846,
      0.00932150986045599,
      -0.1446714997291565,
      -0.1768045425415039,
      -0.05755453556776047,
      -0.10000571608543396
    ],
    [
      0.21087217330932617,
      -0.12691473960876465,
      1.1857635974884033,
      -0.23037603497505188,
      0.36650946736335754,
      0.062299203127622604,
      0.057601213455200195,
      0.4057655334472656,
      -0.03693811222910881,
      0.6592232584953308,
      -0.22326135635375977,
      0.16428402066230774,
      0.133754700422287,
      -0.18139711022377014,
      0.003992697224020958,
      -0.02542872354388237
    ]
  ],
  "1_bias": [
    -0.07453053444623947,
    -0.3519141674041748,
    0.20428678393363953,
    0.0027352068573236465,
    0.4611010253429413,
    0.15433092415332794,
    -0.26246342062950134,
    0.3080202341079712,
    -0.14006012678146362,
    -0.3687540590763092,
    -0.36347976326942444,
    -0.13036221265792847,
    -0.3049411177635193,
    -0.201971173286438,
    -0.09102445840835571,
    -0.29493996500968933
  ],
  "2_weights": [
    [
      0.16553093492984772,
      -0.09063392132520676,
      -0.123606376349926
    ],
    [
      0.21452534198760986,
      -0.019640406593680382,
      0.0029285892378538847
    ],
    [
      -0.20553787052631378,
      -0.8482162356376648,
      0.2329978197813034
    ],
    [
      -0.07174205780029297,
      0.1232708990573883,
      0.11803482472896576
    ],
    [
      -0.006517592817544937,
      -0.19505448639392853,
      -0.6246184706687927
    ],
    [
      -1.0348221063613892,
      -0.4611622989177704,
      -0.10852713882923126
    ],
    [
      0.01230558566749096,
      0.05728859081864357,
      0.027870070189237595
    ],
    [
      0.5780513882637024,
      0.48572778701782227,
      0.3167673647403717
    ],
    [
      0.2536991834640503,
      0.005508973263204098,
      0.06563068181276321
    ],
    [
      0.6363650560379028,
      -0.15800365805625916,
      -0.0424112007021904
    ],
    [
      -0.012918367981910706,
      -0.15491624176502228,
      -0.021600661799311638
    ],
    [
      -0.18681713938713074,
      0.09167373180389404,
      0.043869201093912125
    ],
    [
      -0.15418173372745514,
      0.18330295383930206,
      -0.014478251338005066
    ],
    [
      0.08790499716997147,
      -0.28398075699806213,
      0.004697264637798071
    ],
    [
      -0.0958523228764534,
      0.11968380957841873,
      -0.161007821559906
    ],
    [
      0.21784159541130066,
      -0.12475021183490753,
      0.05603689327836037
    ]
  ],
  "2_bias": [
    -0.12913896143436432,
    -0.03847530111670494,
    0.39176642894744873
  ]
}