{
  "0_weights": [
    [
      -0.09455516189336777,
      -0.14125016331672668,
      0.0022464334033429623,
      -0.00555454334244132,
      -1.3098726272583008,
      -0.10078146308660507,
      0.06272219121456146,
      -0.42183032631874084,
      0.02330964058637619,
      -0.33394762873649597,
      0.10029301047325134,
      -0.07987405359745026,
      -1.3050402402877808,
      -0.1867920160293579,
      -0.019364889711141586,
      0.3073493540287018
    ],
    [
      0.10172663629055023,
      -0.3693162500858307,
      1.143133521080017,
      -0.08692321181297302,
      -0.7559018731117249,
      9.275314369006082e-05,
      0.03883351385593414,
      -0.14999476075172424,
      0.014032670296728611,
      0.05872436240315437,
      -1.5843770503997803,
      -0.24503672122955322,
      -0.871697723865509,
      -0.4053712785243988,
      -0.4992276132106781,
      0.3452444076538086
    ],
    [
      -0.45058804750442505,
      -0.2818148732185364,
      -0.13872401416301727,
      -0.025164229795336723,
      0.04456254839897156,
      -0.3118784725666046,
      -0.053419291973114014,
      -0.39347192645072937,
      0.4701700210571289,
      0.05134832113981247,
      -0.2785004675388336,
      0.044734783470630646,
      -0.19117498397827148,
      -0.2482883632183075,
      -0.07232923060655594,
      -1.7539180517196655
    ],
    [
      -0.30298912525177,
      -0.20626850426197052,
      0.0049667502753436565,
      0.05671490728855133,
      0.08581888675689697,
      -0.2638150751590729,
      0.6407861113548279,
      -0.455657035112381,
      0.2453048974275589,
      -0.40436291694641113,
      0.6738854050636292,
      -0.38694071769714355,
      0.1405615359544754,
      0.0782582089304924,
      -0.4300696849822998,
      -1.3820018768310547
    ],
    [
      -0.22251221537590027,
      -0.07096699625253677,
      0.06613488495349884,
      0.9479808211326599,
      -4.289190769195557,
      -0.22047626972198486,
      -0.43150386214256287,
      0.09499561786651611,
      1.1603120565414429,
      -0.29993852972984314,
      0.5902643799781799,
      -0.2766025960445404,
      -0.4372522830963135,
      -0.17805160582065582,
      -0.19934393465518951,
      -0.009248413145542145
    ],
    [
      -0.013223580084741116,
      0.037081632763147354,
      -1.0835461616516113,
      0.5053637623786926,
      -4.212228775024414,
      0.0728687271475792,
      -0.16186308860778809,
      0.05703715607523918,
      0.8834110498428345,
      -0.513525128364563,
      0.06772232800722122,
      -0.17339304089546204,
      -0.6326639652252197,
      -0.3021301031112671,
      -0.291074275970459,
      0.663646399974823
    ],
    [
      -0.12433318793773651,
      0.09912975877523422,
      -0.9419175982475281,
      0.33165934681892395,
      0.6131173372268677,
      0.05394532158970833,
      0.4937056303024292,
      -0.47587645053863525,
      -0.43806272745132446,
      -0.1948205679655075,
      -0.14694876968860626,
      -0.2446710616350174,
      0.34778037667274475,
      -0.3229431211948395,
      -0.25591203570365906,
      -0.35566985607147217
    ],
    [
      0.14058741927146912,
      -0.2864139676094055,
      0.5525421500205994,
      -0.11884542554616928,
      0.6496819853782654,
      -0.25155094265937805,
      1.0104585886001587,
      -0.1172613799571991,
      -0.5320490002632141,
      -0.44451984763145447,
      0.19789455831050873,
      -0.20285867154598236,
      0.4848129153251648,
      -0.39482372999191284,
      -0.24921664595603943,
      0.37591829895973206
    ],
    [
      -0.15678776800632477,
      -0.21341663599014282,
      -0.49094724655151367,
      -0.4724760055541992,
      0.571470320224762,
      0.04036153480410576,
      0.6507442593574524,
      -0.22514335811138153,
      0.25369006395339966,
      -0.5567237138748169,
      0.6783853769302368,
      -0.344691663980484,
      1.138301968574524,
      -0.376089870929718,
      -0.44525986909866333,
      -1.1151587963104248
    ],
    [
      0.015381725504994392,
      0.027412040159106255,
      1.4484447240829468,
      0.42298436164855957,
      0.04883486032485962,
      0.10972407460212708,
      0.6494185328483582,
      -0.22448517382144928,
      -0.09964322298765182,
      -0.18270014226436615,
      0.8811982870101929,
      -0.16170264780521393,
      0.6585876941680908,
      -0.16365763545036316,
      -0.39844053983688354,
      -0.6547992825508118
    ],
    [
      -0.21530617773532867,
      0.1686088591814041,
      -0.9972035884857178,
      -0.42831337451934814,
      0.5481448769569397,
      -0.10691094398498535,
      0.5282526016235352,
      -0.3124372065067291,
      -0.5310629606246948,
      -0.14686207473278046,
      -0.1464974582195282,
      -0.033389415591955185,
      0.5565151572227478,
      0.03701550513505936,
      -0.30876365303993225,
      -0.016028108075261116
    ]
  ],
  "0_bias": [
    -0.13445790112018585,
    -0.21648326516151428,
    -0.16898342967033386,
    0.1627788096666336,
    -0.42277613282203674,
    -0.123738132417202,
    0.35174983739852905,
    -0.08911252021789551,
    0.42227354645729065,
    -0.0704033225774765,
    0.07043773680925369,
    -0.16134701669216156,
    -0.449197381734848,
    0.036932844668626785,
    0.019591892138123512,
    0.4450700879096985
  ],
  "1_weights": [
    [
      -0.17634457349777222,
      0.09040188789367676,
      -0.2059379369020462,
      0.0541377067565918,
      -0.2751877009868622,
      -0.23636725544929504,
      -0.057169049978256226,
      -0.01153531949967146,
      0.020882874727249146,
      0.1475977599620819,
      -0.04498514533042908,
      0.8267454504966736,
      0.08270469307899475,
      0.15987223386764526,
      -0.21916939318180084,
      0.2121945321559906
    ],
    [
      0.011149972677230835,
      0.031656503677368164,
      0.12384447455406189,
      0.18755701184272766,
      0.03063616156578064,
      0.0540120005607605,
      -0.011117786169052124,
      -0.30513447523117065,
      0.031216353178024292,
      0.16768646240234375,
      0.09732812643051147,
      -0.040395647287368774,
      0.2499190866947174,
      0.0185835063457489,
      0.033788710832595825,
      0.016397088766098022
    ],
    [
      -0.26063042879104614,
      -0.08700288832187653,
      -0.3150230944156647,
      -2.5617427825927734,
      -0.8615487217903137,
      -0.2580048143863678,
      -0.3226558268070221,
      -0.08449596911668777,
      -0.3054395020008087,
      0.48747697472572327,
      0.044405460357666016,
      -1.0524283647537231,
      0.039618924260139465,
      -0.21307744085788727,
      -4.7920355796813965,
      -0.2573898434638977
    ],
    [
      -0.13762104511260986,
      0.03558715060353279,
      -0.07096606492996216,
      -4.352214813232422,
      0.11246591806411743,
      -0.22289395332336426,
      -0.013532202690839767,
      0.33090072870254517,
      -0.20620514452457428,
      0.37585869431495667,
      0.10636705160140991,
      0.38065412640571594,
      0.06536534428596497,
      0.19300177693367004,
      0.38905659317970276,
      -0.1803475022315979
    ],
    [
      -0.1456763744354248,
      -0.0537751130759716,
      -0.19135643541812897,
      0.7651377320289612,
      2.355267286300659,
      0.11703919619321823,
      0.0790414810180664,
      -0.5826196074485779,
      0.007536306977272034,
      5.68895149230957,
      -0.08495688438415527,
      -0.18900194764137268,
      -0.08749803900718689,
      -0.06390438228845596,
      -5.244378089904785,
      -0.036174751818180084
    ],
    [
      0.08543625473976135,
      -0.057086169719696045,
      -0.03702184557914734,
      -0.24177303910255432,
      0.07154820114374161,
      -0.1623528003692627,
      -0.005157142877578735,
      0.04044349119067192,
      0.22527843713760376,
      -0.16196201741695404,
      0.12189283967018127,
      -0.1219753623008728,
      0.11995688080787659,
      -0.18978634476661682,
      -0.08233559876680374,
      -0.19057950377464294
    ],
    [
      -0.22926661372184753,
      -0.08689859509468079,
      -0.1201341301202774,
      -0.022271983325481415,
      0.5507544875144958,
      -0.13541358709335327,
      -0.1542937159538269,
      -0.17715366184711456,
      -0.06220480799674988,
      0.5659523010253906,
      -0.174617737531662,
      -4.6032328605651855,
      -0.06132015958428383,
      -0.04951375350356102,
      -0.035886283963918686,
      0.03344358131289482
    ],
    [
      -0.005454301834106445,
      0.03189826011657715,
      0.20620188117027283,
      -0.20673060417175293,
      0.11473584175109863,
      0.07162338495254517,
      -0.1541074514389038,
      0.036363374441862106,
      0.03350076079368591,
      -0.007933094166219234,
      0.05646374821662903,
      -0.14193639159202576,
      -0.059704333543777466,
      0.18984344601631165,
      0.10322269052267075,
      -0.22696739435195923
    ],
    [
      -0.0769294798374176,
      -0.19555127620697021,
      -0.06178126856684685,
      -2.266508102416992,
      -0.30425623059272766,
      -0.07451489567756653,
      -0.006175704300403595,
      0.5403622984886169,
      0.030769849196076393,
      -0.4135042130947113,
      -0.16914796829223633,
      0.48548218607902527,
      -0.2309742569923401,
      -0.2515879273414612,
      0.2613626718521118,
      -0.34067100286483765
    ],
    [
      0.16115576028823853,
      -0.13103285431861877,
      0.2239232063293457,
      0.1444936841726303,
      -0.29694148898124695,
      -0.1682204306125641,
      -0.18610602617263794,
      0.08118567615747452,
      -0.12161991000175476,
      -0.022004740312695503,
      -0.24663439393043518,
      0.3206266760826111,
      -0.1402791440486908,
      0.14053863286972046,
      0.01634671911597252,
      -0.24291515350341797
    ],
    [
      -0.26921546459198,
      0.11673123389482498,
      0.046518754214048386,
      -0.7714154720306396,
      0.5090237855911255,
      -0.2870197594165802,
      0.10241636633872986,
      0.5279859900474548,
      -0.3398396968841553,
      0.2669355571269989,
      -0.20076394081115723,
      -3.2092697620391846,
      -0.2822361886501312,
      -0.30378463864326477,
      0.1730368733406067,
      -0.1414746195077896
    ],
    [
      -0.17162805795669556,
      -0.2028866708278656,
      -0.15805348753929138,
      0.03304275870323181,
      0.17163819074630737,
      0.1992706060409546,
      -0.08406338095664978,
      0.06866150349378586,
      -0.21498027443885803,
      0.23394398391246796,
      0.19736751914024353,
      0.19303181767463684,
      0.16783258318901062,
      -0.03917858004570007,
      -0.28261032700538635,
      0.16810822486877441
    ],
    [
      -0.14516538381576538,
      -0.10309316217899323,
      0.0119406096637249,
      0.15473656356334686,
      0.5691083073616028,
      -0.05615083873271942,
      -0.12061700224876404,
      -0.4204331338405609,
      0.05727541819214821,
      0.851179301738739,
      0.13525891304016113,
      0.16518369317054749,
      0.17773279547691345,
      0.09482374787330627,
      -0.024587763473391533,
      -0.3273996114730835
    ],
    [
      0.17498335242271423,
      0.24730968475341797,
      -0.17672401666641235,
      0.07588247209787369,
      0.011235803365707397,
      0.20740613341331482,
      0.04491126537322998,
      0.03956131264567375,
      0.15869733691215515,
      0.024993393570184708,
      0.23455393314361572,
      -0.06401574611663818,
      -0.028453171253204346,
      0.010329782962799072,
      0.09982886910438538,
      0.20779678225517273
    ],
    [
      -0.08986625075340271,
      0.0903092622756958,
      -0.10595628619194031,
      -0.07693328708410263,
      0.019649380818009377,
      -0.08381015062332153,
      -0.12986424565315247,
      0.0670529454946518,
      -0.172808438539505,
      0.029599390923976898,
      0.2002803087234497,
      -0.08119511604309082,
      -0.1446714997291565,
      -0.1768045425415039,
      -0.2312702089548111,
      -0.10000571608543396
    ],
    [
      0.12466496974229813,
      0.007078260183334351,
      -0.04584488645195961,
      0.17117199301719666,
      -0.7623137831687927,
      -0.02699708193540573,
      -0.12170158326625824,
      1.7141623497009277,
      -0.0014424422988668084,
      -0.48117703199386597,
      -0.22326135635375977,
      -0.11542341858148575,
      0.10317962616682053,
      -0.17945189774036407,
      0.8774816393852234,
      -0.02712448313832283
    ]
  ],
  "1_bias": [
    -0.07303597778081894,
    -0.310571551322937,
    0.08161859959363937,
    0.573149561882019,
    0.16003142297267914,
    0.017127864062786102,
    -0.3429497480392456,
    0.3986188769340515,
    -0.13687235116958618,
    0.14383019506931305,
    -0.20045727491378784,
    -0.6017279028892517,
    -0.33551621437072754,
    -0.37748920917510986,
    -0.11237181723117828,
    -0.28704553842544556
  ],
  "2_weights": [
    [
      0.16926209628582,
      -0.09090971201658249,
      -0.13211506605148315
    ],
    [
      0.21929314732551575,
      -0.03870539367198944,
      -0.05016090348362923
    ],
    [
      0.174865260720253,
      -0.17259666323661804,
      0.11213161796331406
    ],
    [
      -1.4074629545211792,
      0.19419127702713013,
      1.2173776626586914
    ],
    [
      -0.36514970660209656,
      -0.13374580442905426,
      -0.30335533618927
    ],
    [
      0.02918068692088127,
      0.18405014276504517,
      0.07948356121778488
    ],
    [
      0.09318951517343521,
      -0.02473454177379608,
      -0.054259542375802994
    ],
    [
      0.6516913175582886,
      0.22943203151226044,
      0.17524577677249908
    ],
    [
      0.24642857909202576,
      -0.022179901599884033,
      0.11370304226875305
    ],
    [
      -0.12275926023721695,
      -0.4709412455558777,
      -0.3372288644313812
    ],
    [
      0.08765411376953125,
      -0.05435791611671448,
      0.07894393801689148
    ],
    [
      8.895268440246582,
      5.968837738037109,
      4.913569450378418
    ],
    [
      -0.12347859889268875,
      0.21397413313388824,
      0.016173437237739563
    ],
    [
      0.10396554321050644,
      -0.10390642285346985,
      0.02311697229743004
    ],
    [
      -0.03269278258085251,
      0.44145920872688293,
      0.16180366277694702
    ],
    [
      0.029475128278136253,
      0.0827791839838028,
      0.06378021836280823
    ]
  ],
  "2_bias": [
    -0.07400001585483551,
    0.078407883644104,
    -0.15737226605415344
  ]
}