{
  "0_weights": [
    [
      -0.08837395906448364,
      -0.15696284174919128,
      -0.5229237675666809,
      -0.21874885261058807,
      -0.5794475674629211,
      -0.35794633626937866,
      -0.39472106099128723,
      0.2803507447242737,
      0.2508488893508911,
      -0.33035844564437866,
      -0.2926645874977112,
      -0.07830562442541122,
      -0.21359017491340637,
      -0.11290516704320908,
      0.9244991540908813,
      0.8440973162651062
    ],
    [
      -0.6309124827384949,
      -0.3857438862323761,
      0.5652449727058411,
      -0.29060113430023193,
      -0.40305304527282715,
      -0.12425953894853592,
      0.5934688448905945,
      -0.15797823667526245,
      -0.7099761962890625,
      0.12869034707546234,
      0.42392733693122864,
      -0.24343539774417877,
      -0.41494256258010864,
      -0.36195242404937744,
      -0.5686293840408325,
      -0.18702350556850433
    ],
    [
      -0.9659702181816101,
      -0.2973814010620117,
      -0.30090904235839844,
      -0.3623368740081787,
      -0.15606406331062317,
      -0.4140734076499939,
      0.37167930603027344,
      0.05228536203503609,
      0.10554016381502151,
      0.04927195981144905,
      0.08101841807365417,
      0.0463106594979763,
      -0.007055307272821665,
      -0.2340388149023056,
      0.16922466456890106,
      -0.2484826147556305
    ],
    [
      0.2329845279455185,
      -0.22198568284511566,
      0.11924911290407181,
      -0.2559509575366974,
      0.29027238488197327,
      -0.2922652065753937,
      0.6150428056716919,
      -0.515548050403595,
      -0.15756288170814514,
      -0.28530028462409973,
      0.7186073660850525,
      -0.28922441601753235,
      0.2497313916683197,
      0.1142028346657753,
      -0.3916407823562622,
      -0.5366872549057007
    ],
    [
      0.12332413345575333,
      -0.08652718365192413,
      0.11731696873903275,
      0.17922532558441162,
      -1.4626303911209106,
      -0.252867728471756,
      -0.24794624745845795,
      0.325100302696228,
      0.7101952433586121,
      -0.228723406791687,
      0.43347084522247314,
      -0.1787077933549881,
      -0.8678746223449707,
      -0.09305395185947418,
      0.5496065020561218,
      0.5624522566795349
    ],
    [
      0.08188688009977341,
      0.021501803770661354,
      -0.6053442358970642,
      0.05458663031458855,
      -0.4548007845878601,
      0.039269838482141495,
      -0.4299594461917877,
      0.6144167184829712,
      0.587769091129303,
      -0.4415407180786133,
      -0.3364088833332062,
      -0.17157498002052307,
      -1.379079818725586,
      -0.24096429347991943,
      0.4852079451084137,
      0.5054993629455566
    ],
    [
      -0.38721731305122375,
      0.08321792632341385,
      -0.39370468258857727,
      0.06618166714906693,
      0.9827086925506592,
      0.037958696484565735,
      0.19425992667675018,
      -0.9891659021377563,
      -0.7519152760505676,
      -0.09129422903060913,
      0.01728074811398983,
      -0.24296791851520538,
      0.929721474647522,
      -0.32192012667655945,
      0.08606936037540436,
      -0.2938283681869507
    ],
    [
      1.0113611221313477,
      -0.3021029233932495,
      0.08140798658132553,
      -0.06409620493650436,
      0.617580235004425,
      -0.26188868284225464,
      0.4882292151451111,
      0.3406670093536377,
      -0.6906207203865051,
      -0.38757696747779846,
      0.616138756275177,
      -0.10547873377799988,
      0.022876661270856857,
      -0.3732687830924988,
      0.036993104964494705,
      0.6016747951507568
    ],
    [
      0.01485878974199295,
      -0.22899286448955536,
      0.0011735871667042375,
      -0.23453140258789062,
      0.5782149434089661,
      0.007792357355356216,
      0.5368671417236328,
      0.15136420726776123,
      0.02343142032623291,
      -0.3889152407646179,
      0.2228275090456009,
      -0.24712523818016052,
      0.42922452092170715,
      -0.3455757200717926,
      -0.4332555830478668,
      -0.2179834097623825
    ],
    [
      0.38615015149116516,
      0.01181809138506651,
      0.5599480271339417,
      -0.02893802896142006,
      0.25693997740745544,
      0.08222407102584839,
      0.6514623761177063,
      -0.15413127839565277,
      -0.29268568754196167,
      -0.17925168573856354,
      0.4656004011631012,
      -0.06413602828979492,
      0.17554347217082977,
      -0.15225635468959808,
      -0.6292635798454285,
      -0.46553224325180054
    ],
    [
      -0.19082443416118622,
      0.15267524123191833,
      -0.8301821947097778,
      -0.3614726662635803,
      -1.3901395797729492,
      -0.03805595636367798,
      0.049393169581890106,
      -0.6678314208984375,
      -1.023306965827942,
      -0.03621211275458336,
      0.40202203392982483,
      0.06444999575614929,
      1.4096986055374146,
      0.07429739087820053,
      0.4131404757499695,
      0.6966719031333923
    ]
  ],
  "0_bias": [
    0.08750883489847183,
    -0.23229295015335083,
    0.19941917061805725,
    -0.32360297441482544,
    0.03697223216295242,
    -0.24358105659484863,
    0.2504127621650696,
    0.2640989124774933,
    0.34243080019950867,
    -0.047267310321331024,
    0.05932018905878067,
    -0.15977691113948822,
    -0.3292861580848694,
    0.07227273285388947,
    0.4490666687488556,
    0.23925091326236725
  ],
  "1_weights": [
    [
      -0.2465687394142151,
      0.27233684062957764,
      -0.3397340774536133,
      -0.02874472178518772,
      -0.40726202726364136,
      -0.2943740487098694,
      -0.057169049978256226,
      0.20857806503772736,
      -0.09193595498800278,
      0.7480029463768005,
      -0.04498514533042908,
      -0.3050217628479004,
      -0.007801936473697424,
      -0.0033215410076081753,
      -0.05572371184825897,
      0.13711808621883392
    ],
    [
      0.011149972677230835,
      -0.06603588163852692,
      0.12384447455406189,
      0.18755701184272766,
      0.11284849047660828,
      0.0540120005607605,
      -0.011117786169052124,
      -0.08793037384748459,
      0.031216353178024292,
      0.15221253037452698,
      0.09732812643051147,
      -0.040395647287368774,
      0.2499190866947174,
      0.0185835063457489,
      0.04944845661520958,
      0.016397088766098022
    ],
    [
      -0.24645771086215973,
      0.41368094086647034,
      -0.31197014451026917,
      -0.20380456745624542,
      -0.26974937319755554,
      -0.22105778753757477,
      -0.15226104855537415,
      -0.37865909934043884,
      -0.3264610171318054,
      -0.002209541155025363,
      0.044405460357666016,
      -0.28862300515174866,
      0.0391601137816906,
      -0.2959841191768646,
      0.38522017002105713,
      -0.24169836938381195
    ],
    [
      -0.13762104511260986,
      -0.04942038655281067,
      -0.07096606492996216,
      0.00040021538734436035,
      -0.16683506965637207,
      -0.22289395332336426,
      0.08455023169517517,
      0.026529066264629364,
      0.019647061824798584,
      0.19368845224380493,
      0.10636705160140991,
      0.17359912395477295,
      0.15541207790374756,
      0.22976195812225342,
      0.311160147190094,
      -0.08957123756408691
    ],
    [
      -0.1456763744354248,
      1.3705706596374512,
      -0.19340819120407104,
      -0.04380885884165764,
      -0.21923720836639404,
      0.13592544198036194,
      0.0790414810180664,
      -0.09325703978538513,
      0.046983275562524796,
      -0.0336395688354969,
      -0.08495688438415527,
      -0.18900194764137268,
      -0.08749803900718689,
      -0.0071280221454799175,
      1.4591608047485352,
      0.05459102988243103
    ],
    [
      0.08543625473976135,
      0.02618532069027424,
      -0.03702184557914734,
      -0.24177303910255432,
      0.1437390148639679,
      -0.1623528003692627,
      -0.005157142877578735,
      -0.11473087221384048,
      0.22527843713760376,
      -0.004517267923802137,
      0.12189283967018127,
      -0.1219753623008728,
      0.11995688080787659,
      -0.18978634476661682,
      -0.07114185392856598,
      -0.19057950377464294
    ],
    [
      -0.14897829294204712,
      0.5752171277999878,
      -0.11769822984933853,
      0.0022174138575792313,
      -0.03265199810266495,
      -0.11036866158246994,
      -0.05622553825378418,
      -0.4375118911266327,
      0.024400463327765465,
      0.404421865940094,
      -0.174617737531662,
      -0.3266594409942627,
      -0.06178077682852745,
      0.1094607263803482,
      0.32248204946517944,
      0.04912612959742546
    ],
    [
      -0.07567518204450607,
      0.051792211830616,
      0.10901904106140137,
      -0.20673060417175293,
      -0.026077471673488617,
      0.07162338495254517,
      -0.1541074514389038,
      0.45849141478538513,
      0.03350076079368591,
      0.43850186467170715,
      0.05646374821662903,
      -0.26612839102745056,
      -0.059704333543777466,
      0.18984344601631165,
      0.8282655477523804,
      -0.22696739435195923
    ],
    [
      -0.0597071535885334,
      0.03036378137767315,
      -0.04965749755501747,
      -0.07318839430809021,
      -0.04183642566204071,
      -0.06586869806051254,
      0.1728861927986145,
      0.7043726444244385,
      0.0524323470890522,
      -0.9504321813583374,
      -0.16914796829223633,
      0.08568646758794785,
      -0.14092746376991272,
      -0.06259053200483322,
      0.42012664675712585,
      -0.24032333493232727
    ],
    [
      0.16115576028823853,
      -0.13909442722797394,
      0.2239232063293457,
      -0.042504191398620605,
      -0.08348992466926575,
      -0.1682204306125641,
      -0.18610602617263794,
      -0.07919877022504807,
      -0.12161991000175476,
      0.22995227575302124,
      -0.24663439393043518,
      0.20469000935554504,
      -0.1402791440486908,
      0.14053863286972046,
      -0.09872187674045563,
      -0.24291515350341797
    ],
    [
      -0.25915831327438354,
      0.5645985007286072,
      0.02229071781039238,
      -0.32393673062324524,
      -0.23654410243034363,
      -0.2782233655452728,
      0.10241636633872986,
      0.043234456330537796,
      -0.32186266779899597,
      0.3479076623916626,
      -0.20076394081115723,
      0.0303345937281847,
      -0.2828778624534607,
      -0.32352522015571594,
      -0.0654837116599083,
      -0.1257922202348709
    ],
    [
      -0.17162805795669556,
      -0.2028866708278656,
      -0.15805348753929138,
      0.03304275870323181,
      0.07385748624801636,
      0.1992706060409546,
      -0.08406338095664978,
      0.16649064421653748,
      -0.21498027443885803,
      0.13628387451171875,
      0.19736751914024353,
      0.19303181767463684,
      0.16783258318901062,
      -0.03917858004570007,
      -0.18578612804412842,
      0.16810822486877441
    ],
    [
      -0.14516538381576538,
      1.189923882484436,
      0.02184450440108776,
      0.045731473714113235,
      0.15607210993766785,
      -0.04511918127536774,
      -0.12061700224876404,
      0.46971970796585083,
      0.11061803996562958,
      -0.7986407279968262,
      0.13525891304016113,
      0.1371585875749588,
      0.0872279554605484,
      0.1056194007396698,
      -0.05602508783340454,
      -0.2366197407245636
    ],
    [
      0.17498335242271423,
      0.15622791647911072,
      -0.17672401666641235,
      -0.07307988405227661,
      0.0679730474948883,
      0.20740613341331482,
      0.04491126537322998,
      0.09354957938194275,
      0.15869733691215515,
      -0.019341548904776573,
      0.23455393314361572,
      -0.06401574611663818,
      -0.028453171253204346,
      0.010329782962799072,
      -0.0009105538483709097,
      0.20779678225517273
    ],
    [
      -0.16009043157100677,
      -0.16119728982448578,
      -0.2031390517950058,
      -0.14842352271080017,
      -0.37598711252212524,
      -0.08381015062332153,
      -0.12986424565315247,
      0.7786799073219299,
      -0.23062296211719513,
      -0.10949698090553284,
      0.2002803087234497,
      -0.060898154973983765,
      -0.2351500391960144,
      -0.2607651352882385,
      -0.372967928647995,
      -0.17508216202259064
    ],
    [
      0.1406480073928833,
      -0.04157285764813423,
      -0.04409513622522354,
      -0.1936788707971573,
      -0.19878748059272766,
      -0.007581846788525581,
      0.057601213455200195,
      0.546864926815033,
      -0.03235753998160362,
      0.5464411377906799,
      -0.22326135635375977,
      0.05395232513546944,
      0.1027338057756424,
      -0.14253412187099457,
      -0.11067377030849457,
      -0.0018554284470155835
    ]
  ],
  "1_bias": [
    -0.05882345139980316,
    -0.04576179385185242,
    0.08428993076086044,
    -0.04179350659251213,
    0.07828935980796814,
    0.044498518109321594,
    -0.1650172472000122,
    0.4288802146911621,
    -0.10738613456487656,
    0.0770113542675972,
    -0.20045727491378784,
    -0.2305792272090912,
    -0.335971862077713,
    -0.22775955498218536,
    0.390936940908432,
    -0.2713668942451477
  ],
  "2_weights": [
    [
      0.14991524815559387,
      -0.10625886172056198,
      -0.13926222920417786
    ],
    [
      -0.07599016278982162,
      -0.5946874618530273,
      -0.5393377542495728
    ],
    [
      0.15469972789287567,
      -0.1612572968006134,
      0.12988920509815216
    ],
    [
      -0.04615761712193489,
      0.17588181793689728,
      0.13456204533576965
    ],
    [
      0.026061315089464188,
      0.09625334292650223,
      -0.2905040383338928
    ],
    [
      0.0019876044243574142,
      0.27944204211235046,
      0.09265609830617905
    ],
    [
      0.10973954200744629,
      0.1547180414199829,
      0.12528979778289795
    ],
    [
      0.5763258934020996,
      0.5076190233230591,
      0.5207124352455139
    ],
    [
      0.15891623497009277,
      0.00035858742194250226,
      0.033763594925403595
    ],
    [
      0.17542830109596252,
      0.05046740546822548,
      -0.6178659796714783
    ],
    [
      0.08765411376953125,
      -0.05435791611671448,
      0.07894393801689148
    ],
    [
      -0.1367853432893753,
      0.1416994333267212,
      0.11519455909729004
    ],
    [
      -0.12327464669942856,
      0.12392738461494446,
      -0.07387334108352661
    ],
    [
      0.19694237411022186,
      -0.22744445502758026,
      -0.002421401906758547
    ],
    [
      -0.5834922194480896,
      0.21177110075950623,
      0.00187304662540555
    ],
    [
      0.19535034894943237,
      0.0478939451277256,
      0.22964178025722504
    ]
  ],
  "2_bias": [
    0.08409847319126129,
    -0.07963414490222931,
    0.26305079460144043
  ]
}