{
  "0_weights": [
    [
      -0.15228459239006042,
      -0.15921247005462646,
      0.01988835819065571,
      -0.23781020939350128,
      0.1385166198015213,
      -0.27069053053855896,
      0.014118843711912632,
      -0.4284166693687439,
      0.22210945188999176,
      -0.12122627347707748,
      -0.2134866714477539,
      -0.07965345680713654,
      0.7968040108680725,
      -0.11238983273506165,
      0.31881609559059143,
      0.2325601577758789
    ],
    [
      0.007507780566811562,
      -0.38799312710762024,
      0.670562744140625,
      -0.30968570709228516,
      0.06382594257593155,
      -0.03697675094008446,
      -0.1072825938463211,
      -0.11897899210453033,
      -0.8263130784034729,
      0.8186053037643433,
      0.7403400540351868,
      -0.24482178688049316,
      -0.2897365689277649,
      -0.3550705909729004,
      0.15169121325016022,
      -0.8829747438430786
    ],
    [
      -0.4012693464756012,
      -0.29962074756622314,
      -1.1180046796798706,
      -0.38133516907691956,
      1.0464701652526855,
      -0.32692259550094604,
      1.021936058998108,
      -0.32747262716293335,
      1.376825213432312,
      0.43309763073921204,
      -0.4087461531162262,
      0.04495655745267868,
      -0.11099156737327576,
      -0.20359058678150177,
      1.126212239265442,
      0.2957545816898346
    ],
    [
      -0.3736759424209595,
      -0.22423295676708221,
      0.09466393291950226,
      -0.17600437998771667,
      -0.6809209585189819,
      -0.3021298348903656,
      0.8337622284889221,
      -0.416932076215744,
      -0.13472700119018555,
      -0.2260233610868454,
      0.5944425463676453,
      -0.28922441601753235,
      -0.6907438039779663,
      0.14709074795246124,
      -1.2213228940963745,
      -2.361072540283203
    ],
    [
      -0.26217296719551086,
      -0.08867672085762024,
      1.7438318729400635,
      0.16006623208522797,
      -1.0038599967956543,
      -0.24886968731880188,
      0.1672656089067459,
      0.11582865566015244,
      1.5186805725097656,
      1.9880586862564087,
      1.4643967151641846,
      -0.27640751004219055,
      0.6372977495193481,
      -0.08246127516031265,
      0.11402840167284012,
      -1.8808038234710693
    ],
    [
      -0.07293920964002609,
      0.019250793382525444,
      -0.5046706795692444,
      0.035430923104286194,
      -8.477745723212138e-05,
      0.043263763189315796,
      -0.36027535796165466,
      0.11158664524555206,
      -1.0930722951889038,
      -0.5579420924186707,
      -0.4168071150779724,
      -0.17317421734333038,
      -0.2532855272293091,
      -0.20669865608215332,
      -0.3690320551395416,
      0.5063172578811646
    ],
    [
      -0.1679699420928955,
      0.08096642792224884,
      -0.7785480618476868,
      0.14613428711891174,
      0.5651683807373047,
      0.02809404954314232,
      -0.15007741749286652,
      -0.4345146715641022,
      -1.1972181797027588,
      0.08590967208147049,
      -0.4518580436706543,
      -0.1468702107667923,
      -0.05227767676115036,
      -0.2898494601249695,
      -0.7500419616699219,
      -0.36264246702194214
    ],
    [
      0.08878426998853683,
      -0.30435410141944885,
      -0.015787813812494278,
      0.015856951475143433,
      0.5889882445335388,
      -0.2717628479003906,
      0.41578781604766846,
      -0.06626428663730621,
      -0.5124301314353943,
      -0.46113958954811096,
      0.3290632963180542,
      -0.10547873377799988,
      0.4747479259967804,
      -0.3385114073753357,
      -0.2713014483451843,
      0.40642157196998596
    ],
    [
      -0.17815548181533813,
      -0.23124410212039948,
      0.1499931812286377,
      -0.15457989275455475,
      0.3076792061328888,
      -0.0020732295233756304,
      0.6081773638725281,
      -0.17863744497299194,
      0.06253314018249512,
      -0.29924097657203674,
      0.2981306314468384,
      -0.24712523818016052,
      0.381240576505661,
      -0.3124011754989624,
      -2.774062156677246,
      -0.6068150997161865
    ],
    [
      -0.06778401881456375,
      0.009567363187670708,
      0.262037068605423,
      0.051011115312576294,
      -0.2439918965101242,
      0.1655212938785553,
      1.011950135231018,
      -0.19233262538909912,
      -2.3779213428497314,
      0.15421883761882782,
      0.34933534264564514,
      -0.06413602828979492,
      0.37507355213165283,
      -0.12136663496494293,
      -0.6721624135971069,
      -2.6998374462127686
    ],
    [
      -0.24556851387023926,
      0.15042425692081451,
      0.5621708631515503,
      -0.2815195620059967,
      0.5146585702896118,
      -0.13121800124645233,
      0.06984885782003403,
      -0.25610971450805664,
      0.6010341644287109,
      -0.0017905430868268013,
      0.3191530406475067,
      0.06444999575614929,
      0.4827001690864563,
      0.10888340324163437,
      -1.3487759828567505,
      0.09521492570638657
    ]
  ],
  "0_bias": [
    -0.18604809045791626,
    -0.23454390466213226,
    0.3995535671710968,
    -0.34276190400123596,
    -0.1673150509595871,
    -0.15628908574581146,
    0.00031361106084659696,
    -0.06783682852983475,
    -0.12158913910388947,
    0.5494764447212219,
    0.18463283777236938,
    -0.16112500429153442,
    -0.38580188155174255,
    0.08353658020496368,
    0.631385087966919,
    0.44123733043670654
  ],
  "1_weights": [
    [
      -0.17634457349777222,
      0.09040188789367676,
      -0.27935197949409485,
      -0.06639586389064789,
      -0.29687580466270447,
      -0.21985472738742828,
      -0.057169049978256226,
      0.1881902664899826,
      0.03435683250427246,
      0.1764715015888214,
      -0.04498514533042908,
      -0.2673552930355072,
      0.08270469307899475,
      -0.001126863295212388,
      -0.08365005254745483,
      0.2121945321559906
    ],
    [
      0.011149972677230835,
      0.031656503677368164,
      0.024270687252283096,
      0.28731754422187805,
      0.013087842613458633,
      0.15383510291576385,
      -0.011117786169052124,
      -0.18562236428260803,
      0.13102376461029053,
      0.1500806361436844,
      0.09732812643051147,
      -0.040395647287368774,
      0.2499190866947174,
      0.11834411323070526,
      0.05149100348353386,
      0.016397088766098022
    ],
    [
      -0.2737138271331787,
      -0.04567696899175644,
      -0.07383986562490463,
      -0.06564395129680634,
      0.1200203076004982,
      -0.32984161376953125,
      -0.15226104855537415,
      0.49813950061798096,
      -1.5575177669525146,
      0.7645792961120605,
      0.044405460357666016,
      0.5153806805610657,
      0.03882039710879326,
      -1.7382208108901978,
      -0.37494710087776184,
      -0.2659989297389984
    ],
    [
      -0.13762104511260986,
      -0.04942038655281067,
      -0.07096606492996216,
      0.00040021538734436035,
      -0.16683506965637207,
      -0.22289395332336426,
      0.08455023169517517,
      0.10648229718208313,
      0.019647061824798584,
      0.19368845224380493,
      0.10636705160140991,
      0.17359912395477295,
      0.15541207790374756,
      0.22976195812225342,
      0.23120740056037903,
      -0.08957123756408691
    ],
    [
      -0.24315667152404785,
      -0.0321221724152565,
      -0.5675870776176453,
      0.36384543776512146,
      -0.7954542636871338,
      0.4856184720993042,
      0.03521517664194107,
      -0.5388720035552979,
      0.16138748824596405,
      -0.3843766748905182,
      -0.08495688438415527,
      -1.8206971883773804,
      -0.1783546507358551,
      0.5254093408584595,
      -0.26466894149780273,
      -0.012282654643058777
    ],
    [
      0.08543625473976135,
      -0.057086169719696045,
      0.05610328167676926,
      -0.14861929416656494,
      0.23685289919376373,
      -0.06919936835765839,
      -0.005157142877578735,
      -0.0314696729183197,
      0.3184272050857544,
      -0.1808810979127884,
      0.12189283967018127,
      -0.1219753623008728,
      0.11995688080787659,
      -0.09663835912942886,
      -0.06121298298239708,
      -0.19057950377464294
    ],
    [
      -0.24645815789699554,
      -0.06774958223104477,
      -0.30699780583381653,
      0.5022119879722595,
      -0.04823828861117363,
      0.032710958272218704,
      -0.10674135386943817,
      -1.0282984972000122,
      -0.3701067268848419,
      0.19948060810565948,
      -0.174617737531662,
      -2.1905691623687744,
      -0.06213006004691124,
      -0.1473064124584198,
      0.3383468687534332,
      0.05666673183441162
    ],
    [
      -0.005454301834106445,
      0.03189826011657715,
      0.06035240367054939,
      -0.34375229477882385,
      0.03358116000890732,
      -0.005219196900725365,
      -0.1541074514389038,
      0.11070585250854492,
      0.09876354783773422,
      -0.017095673829317093,
      0.05646374821662903,
      -0.14193639159202576,
      -0.059704333543777466,
      0.18984344601631165,
      0.03619452565908432,
      -0.22696739435195923
    ],
    [
      0.010517030954360962,
      -0.2979777455329895,
      -2.77762508392334,
      0.11774333566427231,
      -1.537179708480835,
      2.0058107376098633,
      0.1728861927986145,
      3.625199794769287,
      2.8957440853118896,
      -2.5320775508880615,
      -0.16914796829223633,
      1.7641425132751465,
      -0.14092746376991272,
      -0.13872607052326202,
      -1.1444885730743408,
      -0.24032333493232727
    ],
    [
      0.06367532163858414,
      -0.18309149146080017,
      0.9250506162643433,
      -1.099136471748352,
      0.14545397460460663,
      -0.8786906003952026,
      -0.24272045493125916,
      0.08576038479804993,
      0.035512663424015045,
      0.8312825560569763,
      -0.24663439393043518,
      0.5278078317642212,
      -0.23113572597503662,
      -1.238150954246521,
      -0.765384316444397,
      -0.3201530873775482
    ],
    [
      -0.18898001313209534,
      0.140884131193161,
      0.3768315613269806,
      0.428036093711853,
      0.48116421699523926,
      0.12104878574609756,
      0.10241636633872986,
      0.14083105325698853,
      -1.0751711130142212,
      0.631001889705658,
      -0.20076394081115723,
      0.7232576012611389,
      -0.28322693705558777,
      -0.5281386375427246,
      0.8264291286468506,
      -0.11954142153263092
    ],
    [
      -0.17162805795669556,
      -0.2028866708278656,
      -0.15805348753929138,
      0.03304275870323181,
      0.07385748624801636,
      0.1992706060409546,
      -0.08406338095664978,
      0.16649064421653748,
      -0.21498027443885803,
      0.13628387451171875,
      0.19736751914024353,
      0.19303181767463684,
      0.16783258318901062,
      -0.03917858004570007,
      -0.18578612804412842,
      0.16810822486877441
    ],
    [
      -0.14516538381576538,
      -0.08163416385650635,
      0.3056197166442871,
      0.20053523778915405,
      0.7511993646621704,
      0.6646745800971985,
      -0.19039231538772583,
      -1.8593941926956177,
      0.5284209251403809,
      0.10769886523485184,
      0.13525891304016113,
      -1.9614555835723877,
      0.08687608689069748,
      0.011979363858699799,
      0.06906240433454514,
      -0.3014775514602661
    ],
    [
      0.17498335242271423,
      0.24730968475341797,
      -0.2739894986152649,
      -0.027016887441277504,
      -0.02863677777349949,
      0.20740613341331482,
      0.04491126537322998,
      0.09787839651107788,
      0.15869733691215515,
      -0.02135605923831463,
      0.23455393314361572,
      -0.06401574611663818,
      -0.028453171253204346,
      0.010329782962799072,
      0.13773442804813385,
      0.20779678225517273
    ],
    [
      -0.18734660744667053,
      -0.0222461074590683,
      0.35504698753356934,
      -1.0928974151611328,
      0.18278636038303375,
      0.637721061706543,
      -0.19963955879211426,
      0.11498694866895676,
      0.9307152032852173,
      -0.8485316038131714,
      0.2002803087234497,
      0.34995827078819275,
      -0.1446714997291565,
      -0.1499902755022049,
      -0.732693612575531,
      -0.17591740190982819
    ],
    [
      0.11339172720909119,
      0.007078260183334351,
      -0.383386492729187,
      0.10995683819055557,
      0.054326415061950684,
      1.2260664701461792,
      0.017247304320335388,
      1.0012668371200562,
      0.6015625596046448,
      0.31095755100250244,
      -0.22326135635375977,
      -0.14229334890842438,
      0.19322636723518372,
      0.33978334069252014,
      0.777844250202179,
      -0.0027988823130726814
    ]
  ],
  "1_bias": [
    -0.08607972413301468,
    -0.306005597114563,
    -1.987396478652954,
    0.25750821828842163,
    0.15290674567222595,
    0.24179628491401672,
    -0.20218566060066223,
    0.527818500995636,
    0.30247870087623596,
    0.1652594953775406,
    -0.20045727491378784,
    0.22404003143310547,
    -0.33632612228393555,
    -0.09621522575616837,
    -0.9043864607810974,
    -0.265309602022171
  ],
  "2_weights": [
    [
      0.17717128992080688,
      -0.07900270819664001,
      -0.11200611293315887
    ],
    [
      0.27725592255592346,
      0.010324469767510891,
      -0.10328259319067001
    ],
    [
      1.6299996376037598,
      -1.4963375329971313,
      -0.32102352380752563
    ],
    [
      -0.8516333103179932,
      0.008755531162023544,
      0.4065008759498596
    ],
    [
      -0.4826311767101288,
      -0.14950290322303772,
      -0.051888637244701385
    ],
    [
      -0.015530569478869438,
      0.21823111176490784,
      0.6054036617279053
    ],
    [
      0.11633728444576263,
      0.12191468477249146,
      0.10449667274951935
    ],
    [
      0.6119884252548218,
      0.47332796454429626,
      0.40744155645370483
    ],
    [
      0.3925333023071289,
      0.2705247700214386,
      0.15323612093925476
    ],
    [
      -0.26654040813446045,
      -0.41239821910858154,
      -0.40099358558654785
    ],
    [
      0.08765411376953125,
      -0.05435791611671448,
      0.07894393801689148
    ],
    [
      0.8159559369087219,
      0.9720353484153748,
      1.1824774742126465
    ],
    [
      -0.12266869097948074,
      0.033070676028728485,
      0.016983361914753914
    ],
    [
      -0.11562242358922958,
      -0.17523108422756195,
      0.8950216174125671
    ],
    [
      -1.1776721477508545,
      0.2276475578546524,
      -0.015086310915648937
    ],
    [
      0.0508839413523674,
      -0.10335908085107803,
      0.09221575409173965
    ]
  ],
  "2_bias": [
    -0.133025661110878,
    0.12493670731782913,
    0.2440691441297531
  ]
}