{
  "0_weights": [
    [
      -0.4228106737136841,
      -0.11357425898313522,
      0.06400858610868454,
      -0.23220142722129822,
      -0.3549831211566925,
      -0.25295403599739075,
      0.44314804673194885,
      -0.39487704634666443,
      0.049169864505529404,
      -0.4225189685821533,
      0.574216902256012,
      -0.08013947308063507,
      -0.28579095005989075,
      0.5338341593742371,
      -0.0023662324529141188,
      -0.028226403519511223
    ],
    [
      1.0156466960906982,
      -0.331282377243042,
      -0.3356122076511383,
      -0.11812253296375275,
      -0.35739102959632874,
      -0.01923864334821701,
      -0.16514159739017487,
      -0.12631092965602875,
      -0.6668757200241089,
      0.06341420859098434,
      0.005400359630584717,
      -0.2452782541513443,
      -0.11973517388105392,
      0.033033084124326706,
      0.5036525130271912,
      -0.5933771133422852
    ],
    [
      0.05663243308663368,
      -0.2430146187543869,
      0.1770223081111908,
      -0.018015488982200623,
      0.028447644785046577,
      -0.30918681621551514,
      0.07277689129114151,
      -0.3402180075645447,
      0.32788634300231934,
      -0.0017079684184864163,
      -1.1822624206542969,
      0.04447416588664055,
      0.09692469239234924,
      -0.3077453672885895,
      0.48166128993034363,
      0.3415378928184509
    ],
    [
      -0.3659781217575073,
      -0.1714150458574295,
      0.2629912197589874,
      0.04381620138883591,
      -0.03446720913052559,
      -0.2843962013721466,
      0.7629371881484985,
      -0.3975101709365845,
      0.5003547072410583,
      -0.22234824299812317,
      0.8582454323768616,
      -0.28922441601753235,
      -0.16402797400951385,
      -0.16138742864131927,
      -0.47195833921432495,
      -0.2969241738319397
    ],
    [
      0.09351561963558197,
      -0.09040466696023941,
      0.7644273638725281,
      0.5704277157783508,
      -0.2533944249153137,
      -0.23117923736572266,
      -0.142555370926857,
      0.11839621514081955,
      0.7023316025733948,
      -0.1524137258529663,
      0.3986407220363617,
      -0.1787077933549881,
      -0.09269372373819351,
      0.07385978102684021,
      0.5441073775291443,
      -0.6379948854446411
    ],
    [
      0.6279988288879395,
      0.05781247094273567,
      -0.4303552806377411,
      0.4258911907672882,
      -0.12576456367969513,
      0.06100224331021309,
      -0.3072861135005951,
      0.07432366162538528,
      0.17528150975704193,
      -0.45142197608947754,
      -0.3132782280445099,
      -0.17361585795879364,
      -0.12858426570892334,
      -0.22720465064048767,
      0.8053758144378662,
      -0.8798704147338867
    ],
    [
      -0.4351156949996948,
      0.14028458297252655,
      0.13229937851428986,
      -0.024615177884697914,
      -0.019212353974580765,
      0.04583420604467392,
      0.6253637671470642,
      -0.4055503308773041,
      0.43248021602630615,
      -0.07965465635061264,
      1.3192801475524902,
      -0.1468702107667923,
      -0.0730758011341095,
      -0.8635849952697754,
      -0.044830676168203354,
      0.15456244349479675
    ],
    [
      0.5315166711807251,
      -0.24663525819778442,
      0.6963434815406799,
      0.707622766494751,
      0.08880117535591125,
      -0.25402283668518066,
      0.7731463313102722,
      -0.04854068532586098,
      -0.17390470206737518,
      -0.3026616871356964,
      -0.36612769961357117,
      -0.10547873377799988,
      0.059779293835163116,
      -1.5847293138504028,
      -0.37696632742881775,
      1.2534265518188477
    ],
    [
      -0.2047564536333084,
      -0.18457484245300293,
      -0.3877822160720825,
      -0.22472387552261353,
      -0.09151862561702728,
      0.015666091814637184,
      0.8552381992340088,
      -0.16157592833042145,
      -0.6303114891052246,
      -0.3245542645454407,
      -0.6444206237792969,
      -0.24712523818016052,
      0.14521850645542145,
      -0.9014905095100403,
      -0.5849598050117493,
      0.22102123498916626
    ],
    [
      -0.022883396595716476,
      0.05186111479997635,
      0.8796817660331726,
      -0.6400722861289978,
      -0.17867757380008698,
      0.09009793400764465,
      1.0169711112976074,
      -0.18517716228961945,
      1.1313451528549194,
      -0.0960054025053978,
      1.0823850631713867,
      -0.06413602828979492,
      0.051629140973091125,
      0.4401443600654602,
      -0.1165512204170227,
      1.0874134302139282
    ],
    [
      -1.0239886045455933,
      0.1976325660943985,
      -0.4863792955875397,
      -0.017563821747899055,
      -0.011294416151940823,
      -0.11347831040620804,
      0.5498249530792236,
      -0.24680568277835846,
      -0.31256788969039917,
      -0.11399837583303452,
      0.3100596070289612,
      0.06444999575614929,
      0.14518722891807556,
      -1.7630058526992798,
      -0.052014511078596115,
      -0.09574951976537704
    ]
  ],
  "0_bias": [
    0.15862463414669037,
    -0.193305104970932,
    -0.2788745164871216,
    -0.025297710672020912,
    -0.16448059678077698,
    -0.1385505050420761,
    0.33293527364730835,
    -0.07244988530874252,
    -0.4223814904689789,
    -0.11202970147132874,
    -0.6475220918655396,
    -0.16161110997200012,
    -0.3708905875682831,
    0.3125217854976654,
    0.7337315678596497,
    -0.6351990699768066
  ],
  "1_weights": [
    [
      -0.17634457349777222,
      -0.05686841905117035,
      -0.28574302792549133,
      0.029396800324320793,
      -0.8365148901939392,
      0.3606712222099304,
      -0.1296992301940918,
      0.6573964953422546,
      0.0774596557021141,
      0.08727149665355682,
      -0.19675879180431366,
      -0.25212791562080383,
      0.08270469307899475,
      -0.054963886737823486,
      -0.2902608811855316,
      0.18880844116210938
    ],
    [
      0.011149972677230835,
      0.031656503677368164,
      0.12384447455406189,
      0.18755701184272766,
      0.051127560436725616,
      0.0540120005607605,
      -0.011117786169052124,
      -0.10374199599027634,
      0.031216353178024292,
      0.1870390921831131,
      0.09732812643051147,
      -0.040395647287368774,
      0.2499190866947174,
      0.0185835063457489,
      -0.048232197761535645,
      0.016397088766098022
    ],
    [
      -0.17623353004455566,
      -0.06719405949115753,
      -0.3268817663192749,
      -0.32372474670410156,
      -0.16695895791053772,
      -0.9423637390136719,
      -0.21313895285129547,
      0.4211907684803009,
      -0.3826618492603302,
      0.5456169247627258,
      -0.12142820656299591,
      -0.24387840926647186,
      0.04385323077440262,
      -0.30344539880752563,
      -0.13313250243663788,
      -0.27431970834732056
    ],
    [
      -0.13762104511260986,
      -0.04942038655281067,
      -0.07096606492996216,
      -0.08514122664928436,
      -0.021207261830568314,
      -0.31561923027038574,
      0.023433253169059753,
      0.5895523428916931,
      -0.0565950945019722,
      0.7162253260612488,
      0.019247008487582207,
      0.17359912395477295,
      0.06959959119558334,
      0.17630212008953094,
      0.151870995759964,
      -0.20955856144428253
    ],
    [
      -0.1456763744354248,
      0.031366586685180664,
      -0.20374159514904022,
      0.004489593207836151,
      0.031078750267624855,
      0.11228400468826294,
      0.0790414810180664,
      -0.08401723951101303,
      0.06443239003419876,
      0.09272245317697525,
      -0.08495688438415527,
      -0.18900194764137268,
      -0.08749803900718689,
      0.14376050233840942,
      -0.005499201361089945,
      0.05459102988243103
    ],
    [
      0.08543625473976135,
      -0.057086169719696045,
      -0.03702184557914734,
      -0.24177303910255432,
      0.06831569224596024,
      -0.1623528003692627,
      -0.005157142877578735,
      0.04395356401801109,
      0.22527843713760376,
      -0.16315858066082,
      0.12189283967018127,
      -0.1219753623008728,
      0.11995688080787659,
      -0.18978634476661682,
      -0.15435999631881714,
      -0.19057950377464294
    ],
    [
      -0.14897829294204712,
      -0.1300235539674759,
      -0.13617613911628723,
      -0.0048865461722016335,
      0.3986552953720093,
      0.15880972146987915,
      -0.11870653182268143,
      -0.3855356276035309,
      -0.04214290529489517,
      0.7425211668014526,
      -0.3062383532524109,
      -0.3230428397655487,
      -0.057250846177339554,
      0.008140499703586102,
      -0.11213049292564392,
      0.009279552847146988
    ],
    [
      -0.005454301834106445,
      0.03189826011657715,
      0.20620188117027283,
      -0.20673060417175293,
      0.04827651381492615,
      0.07162338495254517,
      -0.1541074514389038,
      0.04240785166621208,
      0.03350076079368591,
      -0.0037740960251539946,
      0.05646374821662903,
      -0.14193639159202576,
      -0.059704333543777466,
      0.18984344601631165,
      0.11987179517745972,
      -0.22696739435195923
    ],
    [
      0.010517030954360962,
      -0.19555127620697021,
      -0.06448587030172348,
      -0.02519988641142845,
      0.31829240918159485,
      -0.2199891358613968,
      0.1146390363574028,
      0.5524517297744751,
      0.013575275428593159,
      0.298712819814682,
      -0.10825978219509125,
      0.12409915030002594,
      -0.14092746376991272,
      -0.051788926124572754,
      0.050543371587991714,
      -0.35169756412506104
    ],
    [
      0.16115576028823853,
      -0.13103285431861877,
      0.2239232063293457,
      -0.042504191398620605,
      -0.16427230834960938,
      -0.1682204306125641,
      -0.18610602617263794,
      0.03623877093195915,
      -0.12161991000175476,
      0.13096316158771515,
      -0.24663439393043518,
      0.20469000935554504,
      -0.1402791440486908,
      0.14053863286972046,
      -0.2284846305847168,
      -0.24291515350341797
    ],
    [
      -0.18898001313209534,
      0.13723434507846832,
      0.01597950980067253,
      -0.21093302965164185,
      0.7541453242301941,
      0.25234082341194153,
      0.04102402552962303,
      0.5306375026702881,
      -0.38902097940444946,
      0.4517388343811035,
      -0.2811245620250702,
      0.09743916988372803,
      -0.2781826853752136,
      -0.27269667387008667,
      -0.17607828974723816,
      -0.1781621277332306
    ],
    [
      -0.17162805795669556,
      -0.2028866708278656,
      -0.15805348753929138,
      0.03304275870323181,
      -0.024281227961182594,
      0.1992706060409546,
      -0.08406338095664978,
      0.26462939381599426,
      -0.21498027443885803,
      0.038145169615745544,
      0.19736751914024353,
      0.19303181767463684,
      0.16783258318901062,
      -0.03917858004570007,
      -0.18578612804412842,
      0.16810822486877441
    ],
    [
      -0.14516538381576538,
      -0.017951548099517822,
      0.010592740960419178,
      0.1080535352230072,
      0.27589645981788635,
      -0.047128062695264816,
      -0.12061700224876404,
      -0.21115829050540924,
      0.16444642841815948,
      -0.08138582110404968,
      0.13525891304016113,
      0.22229662537574768,
      0.17773279547691345,
      0.17810101807117462,
      -0.1830662190914154,
      -0.2366197407245636
    ],
    [
      0.17498335242271423,
      0.1748833805322647,
      -0.17672401666641235,
      -0.07307988405227661,
      -0.7494648098945618,
      1.0740957260131836,
      -0.0836137905716896,
      0.07063803821802139,
      0.15869733691215515,
      -0.14213596284389496,
      0.23455393314361572,
      -0.06401574611663818,
      -0.028453171253204346,
      0.010329782962799072,
      0.0900733470916748,
      0.15426835417747498
    ],
    [
      -0.08986625075340271,
      0.017878908663988113,
      -0.10595628619194031,
      -0.1925114542245865,
      -0.09626061469316483,
      -0.21514999866485596,
      -0.19058507680892944,
      0.679080605506897,
      -0.172808438539505,
      -0.4609152674674988,
      0.051893450319767,
      0.028480077162384987,
      -0.1446714997291565,
      -0.45542803406715393,
      -0.25686511397361755,
      -0.15300273895263672
    ],
    [
      0.21087217330932617,
      -0.042479123920202255,
      -0.047071292996406555,
      -0.30928078293800354,
      0.15522192418575287,
      1.4333323240280151,
      0.01072541531175375,
      -0.5098562836647034,
      -0.0877809226512909,
      1.127908706665039,
      -0.09231267869472504,
      0.14121229946613312,
      0.10741385072469711,
      -0.31378644704818726,
      -0.009429596364498138,
      0.019229790195822716
    ]
  ],
  "1_bias": [
    0.011400729417800903,
    -0.3596981465816498,
    0.07441636919975281,
    -0.05080122500658035,
    0.21627354621887207,
    -0.037471383810043335,
    -0.22653405368328094,
    0.3521861732006073,
    -0.17571008205413818,
    0.29071924090385437,
    -0.35572633147239685,
    -0.15342700481414795,
    -0.3312818109989166,
    -0.2851143777370453,
    -0.04446198418736458,
    -0.29222267866134644
  ],
  "2_weights": [
    [
      0.07969105243682861,
      -0.17648303508758545,
      -0.20948639512062073
    ],
    [
      0.22259174287319183,
      0.01469053328037262,
      0.023103127256035805
    ],
    [
      -0.027025092393159866,
      -0.3172757923603058,
      0.09785294532775879
    ],
    [
      -0.23192904889583588,
      0.004037695471197367,
      0.15997734665870667
    ],
    [
      -0.4326334595680237,
      0.0730440765619278,
      -0.41250738501548767
    ],
    [
      -0.3035397529602051,
      -0.07277511060237885,
      0.9459382891654968
    ],
    [
      0.03429589793086052,
      0.05081251636147499,
      0.026506217196583748
    ],
    [
      0.6868670582771301,
      0.5598924160003662,
      0.29441866278648376
    ],
    [
      -0.0073825158178806305,
      -0.16664782166481018,
      0.041013289242982864
    ],
    [
      -0.09645970165729523,
      -0.5992143750190735,
      -0.5849817395210266
    ],
    [
      0.08992264419794083,
      -0.027018874883651733,
      0.10122422128915787
    ],
    [
      -0.1637476682662964,
      0.1147439256310463,
      0.1838269829750061
    ],
    [
      -0.21352532505989075,
      0.12392738461494446,
      -0.07387334108352661
    ],
    [
      0.10444726794958115,
      -0.2695753872394562,
      -0.17018800973892212
    ],
    [
      -0.04369766265153885,
      0.14745396375656128,
      -0.24724151194095612
    ],
    [
      0.07222923636436462,
      -0.10862692445516586,
      -0.036844637244939804
    ]
  ],
  "2_bias": [
    -0.21838150918483734,
    -0.10919398069381714,
    0.11322277039289474
  ]
}